100 20
59 -0.330523 -0.659814 -0.967365 -0.441731 -1.05361 -1.09677 1.12157 -0.336818 -2.18461 3.68212 -0.21077 -0.0780147 -1.79796 1.05071 -0.286174 -0.78899 0.481005 -0.560799 -1.28157 1.16064
65 -0.48939 -0.637933 -0.94724 -0.354006 -0.916571 -0.668557 0.984119 -0.117635 -2.09105 3.36715 -0.152892 0.0368468 -1.79829 1.1201 -0.233716 -0.7512 0.418619 -0.505354 -1.11203 0.949494
72 -0.18592 -0.434971 -0.611542 -0.200822 -0.58197 -0.810176 0.95605 -0.172972 -2.01295 3.3447 -0.333709 -0.0846013 -1.70511 0.900578 -0.100829 -0.614898 0.415042 -0.486017 -1.10599 0.969122
96 -0.180643 -0.288352 -0.553529 -0.358099 -0.521762 -0.748305 0.905095 -0.265515 -2.1614 3.23598 -0.0156596 0.0270069 -1.92395 1.0377 -0.270092 -0.607301 0.187616 -0.791409 -0.951012 0.869744
35 -0.0756403 -0.3999 -0.539747 -0.403218 -0.586787 -0.899325 0.900736 -0.300913 -1.95188 3.26303 0.05226 0.0163666 -1.8099 1.09622 -0.374409 -0.359542 0.256189 -0.706742 -0.846481 1.01067
18 -0.359289 -0.357985 -0.683428 -0.301943 -0.611707 -0.938832 0.941353 -0.241303 -1.95951 3.25268 -0.100812 -0.130822 -1.72022 1.18727 -0.169184 -0.654487 0.261916 -0.638947 -0.92975 0.781383
24 -0.286219 -0.411703 -0.479128 -0.164249 -0.486563 -0.893806 0.717981 -0.290635 -1.91729 3.34688 -0.166744 0.0120916 -1.72231 1.081 -0.332938 -0.603265 0.302971 -0.526788 -1.09539 0.828112
48 -0.490032 -0.35081 -0.720542 -0.331163 -0.472124 -0.952962 0.876742 -0.0156118 -1.89936 3.43415 -0.103391 -0.0665889 -1.70932 1.15871 -0.228781 -0.598449 0.357673 -0.550333 -1.03739 0.835459
54 -0.0630892 -0.259809 -0.696522 -0.351493 -0.660643 -0.865893 0.674906 -0.298069 -1.91178 3.2854 -0.282656 -0.159743 -1.61901 1.04499 -0.117944 -0.423025 0.209752 -0.639203 -0.922361 0.776564
15 -0.232918 -0.472555 -0.549767 -0.337026 -0.488737 -1.00166 0.85878 -0.16542 -1.84403 3.33805 -0.146464 -0.225411 -1.68396 0.897735 -0.225521 -0.518916 0.217065 -0.56777 -0.915456 0.983305
13 -0.172045 -0.161151 -0.580501 -0.248611 -0.626862 -1.20617 0.853031 -0.0509457 -1.88498 3.39172 -0.319181 -0.114915 -1.50138 1.0491 -0.382672 -0.546592 0.146254 -0.405994 -1.01852 0.686706
85 -0.356937 -0.455428 -0.458012 -0.414644 -0.448188 -1.17152 0.992565 -0.249033 -1.70976 3.38248 -0.226204 -0.162343 -1.51195 1.03128 -0.411683 -0.603533 0.348261 -0.580361 -0.955632 0.766536
76 -0.184301 -0.252637 -0.588261 -0.333573 -0.559268 -0.804236 0.802263 -0.113014 -1.90783 3.4092 -0.300089 -0.0224506 -1.68405 1.09259 -0.276229 -0.557185 0.167785 -0.586157 -0.855945 0.991076
19 -0.0858787 -0.211263 -0.613601 -0.312245 -0.635248 -0.936137 0.833617 -0.0933706 -2.02623 2.97966 -0.286508 -0.048106 -1.51704 0.995893 -0.34954 -0.524285 0.278441 -0.46426 -0.944464 0.793036
77 -0.38041 -0.0815755 -0.586655 -0.284939 -0.541652 -1.07561 0.881038 -0.03493 -1.87326 3.41328 -0.255444 -0.212319 -1.65684 0.885651 -0.386354 -0.882939 0.101277 -0.455576 -0.953719 0.751848
93 -0.110465 -0.206679 -0.676867 -0.495423 -0.571527 -0.990617 0.865809 -0.133655 -1.90566 3.23583 -0.124101 -0.0901039 -1.65564 1.01687 -0.302958 -0.322595 0.174428 -0.600978 -0.911375 0.748291
66 -0.32232 -0.504596 -0.677043 -0.429369 -0.572301 -1.17401 0.81091 -0.12882 -1.75071 3.54874 -0.0254421 -0.352377 -1.59368 1.15072 -0.431042 -0.38881 0.326725 -0.526196 -0.989858 0.704959
79 -0.31389 -0.508946 -0.834228 -0.384586 -0.753125 -1.27645 0.945412 -0.128706 -2.03075 3.81986 -0.256403 -0.437224 -1.71342 1.12528 -0.280019 -0.4852 0.156118 -0.48823 -0.871136 0.991659
89 -0.168798 -0.463911 -0.922732 -0.43117 -0.712085 -1.33193 1.00136 -0.147198 -2.01992 3.76361 -0.190097 -0.46767 -1.86065 1.10775 -0.254933 -0.46171 0.163214 -0.503903 -0.890322 1.0171
70 -0.0747503 -0.133543 -0.756528 -0.610403 -0.630223 -0.887955 0.634518 -0.378297 -1.79871 3.45224 -0.439505 -0.135203 -1.49206 0.834344 -0.395928 -0.619932 0.170949 -0.37896 -1.09712 0.886004
73 -0.139908 0.0110738 -0.791461 -0.499008 -0.737093 -1.16653 0.858378 -0.159214 -1.91381 3.50022 -0.503792 -0.0420203 -1.59551 1.00278 -0.317379 -0.789909 0.255776 -0.656071 -0.832606 0.731211
98 -0.291653 -0.122665 -0.693887 -0.432553 -0.820534 -1.26134 0.951119 -0.274632 -2.14689 3.43776 -0.430146 0.0339537 -1.71791 0.893326 -0.495309 -0.720206 0.00792954 -0.478233 -0.921855 0.921542
29 -0.307568 -0.26991 -0.810226 -0.549469 -0.889371 -1.12934 1.05825 -0.202403 -2.14057 3.42703 -0.191459 0.0137281 -1.63532 0.93913 -0.437572 -0.753772 0.247499 -0.464988 -1.00062 0.99762
64 -0.257305 -0.268851 -0.679466 -0.184989 -0.318468 -1.11215 0.920224 0.0406853 -1.79893 3.06187 -0.660591 -0.0930972 -1.37703 0.81916 -0.239198 -0.731729 0.200077 -0.478295 -0.871829 0.791317
74 -0.144412 -0.228052 -0.628221 -0.227674 -0.613313 -0.872007 0.957528 -0.0150753 -2.10123 3.05417 -0.110982 -0.19658 -1.63106 0.930739 -0.363667 -0.518357 0.200375 -0.492089 -0.935511 0.796836
55 -0.326128 -0.397119 -0.636047 -0.318716 -0.56682 -0.714021 0.854038 -0.0991318 -1.99219 3.37082 -0.205188 0.0311365 -1.77367 0.967897 -0.276167 -0.632567 0.273964 -0.495485 -1.05972 0.872951
31 -0.504787 -0.475557 -0.689865 -0.451052 -0.670205 -0.948961 0.792985 -0.160248 -2.05841 3.39652 -0.174332 -0.100972 -1.75057 1.02942 -0.335093 -0.565115 0.132726 -0.626676 -0.956992 0.68652
92 -0.262169 -0.302215 -0.686474 -0.181243 -0.58893 -1.18209 0.923942 -0.247825 -1.96672 3.14629 -0.182063 -0.0348252 -1.45076 1.03933 -0.338886 -0.396391 0.0697127 -0.521027 -0.971815 0.666424
99 -0.115489 -0.430514 -0.756674 -0.29435 -0.616711 -0.809528 0.939345 -0.266025 -2.14795 3.2483 -0.340758 -0.0860398 -1.67726 0.900046 -0.13398 -0.718993 0.319571 -0.659019 -1.12224 1.06019
44 -0.255428 -0.324294 -0.636578 -0.248514 -0.604628 -0.717693 0.747445 0.0139963 -1.92803 3.28077 -0.111799 -0.0596326 -1.66645 1.14337 -0.300399 -0.572674 0.26946 -0.432171 -0.888433 0.730022
62 -0.115113 -0.230405 -0.774023 -0.410138 -0.644711 -0.81752 0.693518 -0.164035 -2.00281 3.30645 -0.116637 -0.101291 -1.59448 0.995262 -0.36661 -0.640966 0.288434 -0.398316 -0.926295 0.748305
88 -0.207979 -0.391255 -0.561006 -0.37436 -0.468589 -0.900618 0.973432 -0.281224 -2.09421 3.31304 -0.11802 -0.0178284 -1.82107 1.01502 -0.247799 -0.614297 0.286823 -0.846711 -0.894986 1.03343
32 -0.298893 -0.319284 -0.584282 -0.109152 -0.600145 -0.799046 0.830538 -0.171369 -1.98975 3.37608 -0.158297 -0.180276 -1.83894 0.839538 -0.186933 -0.623094 0.353709 -0.564208 -1.12451 0.910161
12 -0.299381 -0.422767 -0.680531 -0.299886 -0.594579 -0.671679 0.837662 -0.411925 -2.18466 3.22338 0.068829 0.00572621 -2.0048 1.06761 -0.0539422 -0.671333 0.311504 -0.805194 -0.898685 1.01834
17 -0.0357656 -0.350819 -0.638355 -0.205533 -0.626237 -0.686789 0.800467 0.0636499 -2.05391 3.24109 -0.253759 -0.0126102 -1.72754 0.946765 -0.147103 -0.630609 0.235399 -0.590762 -1.07553 1.0526
87 -0.271423 -0.280422 -0.806149 -0.474031 -0.629378 -0.951668 0.820691 -0.249874 -1.87277 3.30462 -0.2079 -0.086554 -1.55038 0.973971 -0.320769 -0.501208 0.281681 -0.404321 -1.02173 0.584063
69 -0.42306 -0.483617 -0.6002 -0.327836 -0.584318 -0.858199 0.747137 0.00505509 -1.93492 3.39871 -0.180353 -0.010085 -1.72209 1.10654 -0.392995 -0.600754 0.255713 -0.544561 -0.937404 0.846667
58 -0.482377 -0.491996 -0.471611 -0.345508 -0.541334 -0.866103 0.7849 -0.275113 -2.00885 3.31019 -0.202973 -0.238433 -1.78437 0.967381 -0.318001 -0.722875 0.0977331 -0.665352 -0.946356 0.898286
56 -0.296349 -0.426541 -0.797372 -0.424836 -0.710568 -0.870829 0.925466 -0.332585 -2.04069 3.09972 -0.363339 -0.0404312 -1.53898 1.0348 0.0101606 -0.725302 0.254442 -0.494709 -1.06039 0.711562
2 -0.325191 -0.647749 -1.03482 -0.379611 -1.04197 -0.895014 0.988672 -0.118044 -2.15062 3.60158 -0.235963 -0.0672783 -1.6941 1.05213 -0.23109 -0.707308 0.473006 -0.327289 -1.25359 0.90775
5 -0.660732 -0.541457 -0.818103 -0.267459 -0.942751 -0.925108 1.04351 -0.237413 -2.25171 3.47692 -0.376059 0.254136 -1.69256 1.02048 -0.343254 -0.698866 0.34073 -0.353447 -1.09581 1.04252
30 -0.162689 -0.407469 -0.908672 -0.475512 -0.92102 -0.667264 0.857946 -0.133402 -2.09216 3.30362 -0.138712 0.0892899 -1.6326 1.1122 -0.186789 -0.780559 0.382778 -0.467877 -1.05516 0.935278
61 -0.252642 -0.375768 -0.587525 -0.326752 -0.454341 -0.955927 0.719742 -0.261901 -1.8596 3.2546 -0.124963 -0.0129684 -1.674 1.10808 -0.221422 -0.550531 0.179318 -0.663204 -0.843539 0.953933
23 -0.411698 -0.252183 -0.693256 -0.389312 -0.724663 -0.958432 0.920547 -0.240085 -1.88587 3.32089 -0.692168 -0.0327315 -1.43121 0.81969 -0.363854 -0.547655 0.102665 -0.623235 -1.14922 0.705976
67 -0.487635 -0.394135 -0.438985 -0.358341 -0.513014 -0.811653 0.757821 -0.154451 -2.03756 3.29903 -0.0205404 -0.0363039 -1.71655 1.11609 -0.310748 -0.760229 0.336792 -0.575675 -1.04084 0.740307
38 -0.0903016 -0.307692 -0.577227 -0.387491 -0.464296 -0.779572 0.94014 -0.268125 -2.11366 3.25777 0.127911 0.0424948 -1.9197 0.994336 -0.170107 -0.630033 0.261712 -0.690664 -0.983555 1.10361
57 -0.191569 -0.146716 -0.610722 -0.306093 -0.558787 -1.00496 1.02561 -0.0772331 -2.12832 3.13613 -0.188405 -0.1465 -1.58876 0.970142 -0.213085 -0.457678 0.213874 -0.613548 -1.03457 0.669383
50 -0.293781 -0.39883 -0.636136 -0.333984 -0.651243 -1.18326 0.808972 -0.165029 -1.75226 3.54515 -0.0663923 -0.258517 -1.56297 1.18397 -0.371772 -0.432005 0.286842 -0.486515 -0.941464 0.791253
25 -0.203865 -0.456982 -0.648029 -0.377027 -0.666848 -1.20529 0.956457 -0.17763 -1.86823 3.53061 -0.0174284 -0.288521 -1.60287 1.16816 -0.485768 -0.361062 0.259021 -0.438254 -0.854328 0.927299
6 -0.256695 -0.58168 -0.813634 -0.451204 -0.731317 -1.35333 1.01772 -0.25641 -1.97175 3.74332 -0.0848244 -0.478358 -1.81226 1.11954 -0.325903 -0.409725 0.157737 -0.615553 -0.891673 0.978642
10 -0.220023 -0.299476 -0.847542 -0.391368 -0.785073 -1.35597 0.939169 -0.195718 -2.11404 3.73665 -0.182931 -0.446843 -1.90519 0.994253 -0.317198 -0.582613 0.102651 -0.637396 -0.945352 0.961783
83 0.0324625 -0.265979 -0.573054 -0.355541 -0.5341 -0.964167 1.00533 -0.222438 -1.87393 3.03258 -0.494834 -0.0476915 -1.3307 0.753327 -0.320416 -0.54751 0.184881 -0.219359 -1.15114 0.887128
84 -0.152575 -0.304187 -0.770642 -0.352157 -0.832898 -0.825428 1.05696 -0.0952842 -2.01719 3.02843 -0.383668 -0.067531 -1.46883 0.95508 -0.0887593 -0.572595 0.400244 -0.549366 -0.985598 0.742224
39 -0.312853 -0.253501 -0.647724 -0.33653 -0.623412 -0.842814 0.819216 -0.124266 -1.89029 3.31573 -0.212431 -0.0912354 -1.68947 1.11265 -0.288337 -0.586598 0.391434 -0.463503 -0.947583 0.79876
46 -0.326746 -0.517108 -0.73501 -0.365369 -0.597431 -0.632582 0.871199 -0.117884 -2.12298 3.24105 -0.116084 -0.0301702 -1.83433 0.894327 -0.187047 -0.707155 0.267103 -0.510336 -1.09877 1.00159
68 -0.24673 -0.449095 -0.778813 -0.422236 -0.820555 -1.32953 0.980962 -0.195434 -2.07602 3.82989 -0.137999 -0.335459 -1.78337 1.15513 -0.40025 -0.502055 0.172774 -0.549726 -0.932725 0.952583
94 -0.272492 -0.120597 -0.848014 -0.362401 -0.834725 -1.34434 1.04205 -0.0628208 -2.2134 3.61226 -0.127564 -0.380978 -2.03052 0.891198 -0.288093 -0.897895 0.0697858 -0.622876 -1.01759 0.958061
1 -0.355956 -0.175829 -0.859321 -0.403197 -0.865788 -1.33025 0.977471 -0.127763 -2.18307 3.66261 -0.0894842 -0.355212 -2.02616 0.807784 -0.297694 -0.939649 0.0683255 -0.571793 -1.05184 0.993381
78 -0.238682 -0.328175 -0.81289 -0.445224 -0.857683 -1.26837 1.00663 -0.265289 -2.16666 3.6217 -0.205715 0.0659797 -1.81225 0.931004 -0.405274 -0.81569 0.158933 -0.403225 -1.03601 1.09516
3 -0.265452 0.0243144 -0.766372 -0.454249 -0.868851 -1.25189 0.999569 -0.28291 -2.18076 3.4568 -0.243753 0.0303924 -1.76581 0.976343 -0.369918 -0.832119 0.0647108 -0.487377 -1.21507 0.932027
4 -0.317428 -0.0828368 -0.901122 -0.401658 -0.886225 -1.35022 1.10717 -0.00143775 -2.29161 3.71821 -0.224153 -0.3302 -1.93531 0.817323 -0.336592 -0.913546 0.0119446 -0.496038 -1.08294 0.911675
27 -0.257221 -0.192723 -0.973851 -0.52241 -0.773525 -1.34298 1.19932 -0.02649 -2.06467 3.56814 -0.306539 -0.370749 -1.80584 0.83167 -0.491534 -0.840568 0.0580275 -0.763199 -1.12447 0.943368
51 -0.0608054 -0.0146628 -0.910418 -0.525243 -0.717383 -1.06681 1.15126 -0.180909 -2.07319 3.26745 -0.178384 -0.045381 -1.63844 0.956833 -0.358764 -0.7619 0.269692 -0.607748 -1.09208 0.869015
49 -0.316522 -0.410552 -0.852331 -0.66231 -0.689991 -1.29854 1.05993 -0.494755 -2.13187 3.61078 -0.278466 0.153837 -1.79993 1.0617 -0.498163 -0.792426 0.161866 -0.541836 -1.00416 1.24707
71 -0.154759 -0.396944 -0.701956 -0.536108 -0.669842 -1.25747 1.17315 -0.457812 -2.10022 3.52277 -0.392858 0.151389 -1.66298 1.02524 -0.565683 -0.748325 0.196677 -0.579778 -0.922437 1.24493
34 -0.188612 -0.403064 -0.784236 -0.489001 -0.887966 -1.16319 1.04186 -0.348648 -2.10575 3.4582 -0.452648 0.108825 -1.71949 1.01388 -0.463799 -0.77585 0.325184 -0.462178 -0.989467 1.09062
86 -0.471176 -0.563308 -0.977449 -0.498936 -0.772397 -0.935716 0.950885 -0.387661 -2.28443 3.67209 -0.309185 0.154033 -1.85098 1.04813 -0.463098 -0.864149 0.301467 -0.472252 -1.03746 1.27967
7 -0.133091 0.0117454 -0.766727 -0.357923 -0.521362 -1.01291 0.889183 -0.115986 -1.87667 3.26665 -0.607416 -0.17062 -1.41595 0.901024 -0.289145 -0.804469 0.197798 -0.383088 -0.908661 0.684322
95 -0.19451 -0.235074 -0.956881 -0.570317 -0.659332 -1.22788 1.21384 -0.199541 -2.03721 3.48823 -0.310481 -0.161423 -1.65972 0.885677 -0.501118 -0.757352 0.177503 -0.797115 -1.10139 1.11564
14 -0.349098 -0.469316 -0.760462 -0.498911 -0.888331 -1.13835 0.988116 -0.329504 -2.2313 3.60215 -0.402716 0.215141 -1.73053 1.15379 -0.438125 -0.754189 0.321369 -0.343197 -1.02999 1.15053
82 -0.22538 -0.101197 -0.906164 -0.470482 -0.84604 -1.34834 1.13025 -0.105169 -2.16179 3.6987 -0.238995 -0.294203 -1.9781 0.851227 -0.46468 -0.958013 0.0703122 -0.688773 -1.02696 1.05301
41 -0.262205 -0.217639 -0.872271 -0.502637 -0.906398 -1.05511 0.903757 -0.168115 -2.05896 3.45668 -0.317522 0.143897 -1.57476 0.994492 -0.462831 -0.837644 0.385748 -0.489362 -1.06661 0.98867
75 -0.179476 -0.199438 -0.738879 -0.555466 -0.954816 -1.08408 1.14311 -0.260813 -2.19152 3.49593 -0.357706 0.183117 -1.59621 1.08024 -0.492043 -0.762889 0.321917 -0.504412 -1.05058 0.934311
97 -0.0723709 -0.263538 -0.909467 -0.62751 -0.698311 -1.18879 1.32439 -0.395494 -2.22241 3.57606 -0.363484 0.245045 -1.62 1.0614 -0.518931 -0.680188 0.261953 -0.58444 -1.16963 1.18928
0 -0.188061 -0.494903 -0.846613 -0.625345 -0.756382 -1.09516 1.24267 -0.304433 -2.11067 3.62216 -0.303451 0.153328 -1.74999 1.13598 -0.476474 -0.748 0.321991 -0.459339 -1.12243 1.21281
90 -0.396547 -0.76016 -0.873707 -0.356141 -1.0178 -0.925125 1.01967 -0.255107 -2.19411 3.59871 -0.00328584 -0.0428822 -1.90875 1.07187 -0.208789 -0.733255 0.415262 -0.447095 -1.35801 1.09676
22 -0.419156 -0.622162 -0.886972 -0.551086 -0.933274 -1.07611 1.16393 -0.391548 -2.24782 3.59683 -0.178598 0.235938 -1.78878 1.15912 -0.354888 -0.788974 0.396666 -0.426162 -1.14071 1.19527
16 -0.453545 -0.671753 -1.10194 -0.489596 -0.965991 -1.00392 1.12649 -0.235051 -2.22775 3.6776 0.066118 -0.0930654 -1.89456 1.07883 -0.204964 -0.80541 0.404728 -0.523878 -1.25893 1.05077
43 -0.170787 -0.651359 -1.01184 -0.542445 -0.988647 -1.06975 1.14459 -0.350249 -2.20955 3.68683 -0.134004 0.0199628 -1.78338 1.19459 -0.256708 -0.700272 0.478403 -0.570449 -1.33776 1.15797
20 -0.205202 -0.376716 -0.797749 -0.658628 -0.688469 -1.16883 1.22845 -0.434538 -2.12289 3.62169 -0.319069 0.184893 -1.67604 1.03361 -0.527462 -0.715431 0.230522 -0.509307 -1.12158 1.15117
26 -0.1269 -0.3402 -0.958508 -0.582281 -0.844259 -1.12814 1.17984 -0.293051 -2.14854 3.49672 -0.218981 0.14407 -1.74813 1.075 -0.297226 -0.918557 0.328189 -0.468805 -0.967265 1.11691
21 -0.484182 -0.558189 -1.06788 -0.333786 -0.985853 -0.792794 0.933127 -0.0931512 -2.12933 3.39014 -0.124297 -0.0466602 -1.70366 0.9458 -0.17325 -0.79932 0.400599 -0.556653 -1.17968 0.86847
8 -0.601332 -0.533869 -0.932403 -0.260183 -0.90052 -0.700006 0.87695 -0.0957909 -2.1649 3.34023 -0.0220287 -0.110902 -1.83493 0.967969 -0.0943972 -0.831344 0.380975 -0.651945 -1.15981 0.8591
80 -0.345928 -0.0390051 -0.746779 -0.360845 -0.814771 -1.28789 0.885005 -0.226173 -2.25289 3.50167 -0.197604 -0.0112182 -1.81122 0.992301 -0.336703 -0.838975 0.0378673 -0.546095 -0.944091 0.862626
36 -0.346021 -0.667357 -0.977018 -0.463031 -1.03224 -1.10423 1.1793 -0.201003 -2.15527 3.68724 -0.0890441 -0.0359583 -1.83642 1.11228 -0.264928 -0.719618 0.460317 -0.512885 -1.34199 1.14541
28 -0.249512 -0.312523 -0.714613 -0.463543 -0.917836 -1.20699 1.16831 -0.238209 -2.06359 3.46773 -0.169931 0.258601 -1.8017 1.08679 -0.444664 -0.862364 0.272553 -0.496137 -1.07469 1.10042
42 -0.193301 -0.163098 -1.01458 -0.538146 -0.726618 -1.23421 1.14411 -0.0769019 -1.95119 3.31972 -0.410344 -0.237759 -1.59345 0.746161 -0.443066 -0.806504 0.0919262 -0.727007 -1.09988 0.947789
40 -0.157967 -0.312544 -0.934872 -0.586271 -0.675264 -1.38012 1.32212 -0.196673 -2.01339 3.58586 -0.318265 -0.220704 -1.71664 0.860645 -0.546563 -0.71688 0.147613 -0.801269 -1.10632 1.10489
37 -0.168442 -0.364506 -0.804441 -0.615785 -0.603836 -1.16163 1.13385 -0.473504 -2.14811 3.6368 -0.322712 0.156042 -1.67316 1.01147 -0.582207 -0.649705 0.203611 -0.644752 -1.16131 1.22632
52 -0.157667 -0.504425 -0.887102 -0.474274 -0.885985 -0.968683 1.17575 -0.20625 -2.1672 3.53247 -0.12843 0.0754591 -1.77096 1.09494 -0.332548 -0.664874 0.469234 -0.317598 -1.20247 1.14577
45 -0.291684 -0.322453 -0.840739 -0.409764 -0.770681 -1.03525 0.97382 -0.108118 -2.02337 3.40959 -0.315542 0.0849219 -1.64202 0.894644 -0.45139 -0.837105 0.252279 -0.444237 -1.15868 0.94656
53 -0.290739 -0.751633 -1.05863 -0.460356 -1.0552 -1.02883 1.15964 -0.268807 -2.18851 3.70137 -0.225421 -0.139899 -1.77247 1.08277 -0.25152 -0.666463 0.501816 -0.544257 -1.2773 1.17832
11 -0.241352 -0.181857 -0.786277 -0.374441 -0.794045 -1.44949 0.96922 -0.178857 -2.10689 3.69543 -0.101563 -0.383571 -1.86056 0.871932 -0.348739 -0.656686 -0.0382945 -0.578203 -1.13332 0.928291
60 -0.195847 -0.351873 -0.89861 -0.476735 -0.695388 -1.23629 0.97451 -0.15272 -2.01568 3.61314 -0.272314 -0.39629 -1.81868 1.09534 -0.346127 -0.515586 0.10842 -0.564775 -0.864329 0.875457
47 -0.186669 -0.0824212 -0.92021 -0.38524 -0.778262 -1.37413 0.96492 -0.167322 -2.21102 3.69219 -0.136942 -0.29357 -1.97264 0.899326 -0.308854 -0.809813 0.0677522 -0.546118 -1.17203 0.949675
81 -0.342023 -0.641551 -0.971355 -0.488001 -0.924179 -1.01548 1.13913 -0.229148 -2.19742 3.70922 -0.218015 -0.0457642 -1.74354 1.10524 -0.259442 -0.693036 0.431577 -0.486256 -1.4029 1.05378
63 -0.328411 -0.148729 -0.908472 -0.385153 -0.895252 -1.3399 1.01911 -0.0171076 -2.19833 3.77421 -0.161451 -0.401215 -1.94672 0.834108 -0.297791 -0.867173 0.00746534 -0.561764 -1.10853 0.896283
91 -0.253248 -0.207396 -0.860742 -0.368894 -0.86149 -1.33212 1.07475 -0.127299 -2.13654 3.65732 -0.228228 -0.300637 -1.89423 0.863425 -0.377396 -0.904313 0.0882001 -0.476571 -1.04117 1.01776
33 -0.256313 -0.546948 -0.848361 -0.474309 -0.741749 -1.27623 0.975131 -0.159785 -1.95537 3.84867 -0.201094 -0.421213 -1.73267 1.20949 -0.396254 -0.38521 0.199767 -0.507652 -0.900164 0.935584
9 -0.325304 -0.184937 -1.01817 -0.450142 -0.948875 -1.38558 1.05034 0.00553876 -2.16323 3.66538 -0.265121 -0.418357 -1.90774 0.803703 -0.343853 -0.889615 0.0632432 -0.643083 -1.01612 0.95749
