20 20
13 -0.246291 -0.230098 -0.338318 0.611295 0.421346 -0.61104 -0.945569 0.816813 0.297672 0.120637 0.0399161 3.09976 0.01898 0.424273 0.780355 -0.120623 0.911397 0.201373 -0.93102 -0.501734
19 -0.110396 0.338471 -0.0658405 0.70763 0.482816 -0.753366 -0.551458 1.13229 0.296586 -0.181683 0.052071 3.09138 -0.141359 0.614278 0.584312 0.206579 0.980436 0.169863 -0.665832 -0.668915
18 -0.0509336 0.415897 -0.194257 0.610671 0.686945 -0.75201 -0.781456 0.893771 0.232249 0.506129 -0.0880206 3.26146 -0.135307 0.338026 0.589273 0.119954 0.919965 0.370244 -0.803887 -0.304685
12 0.0697014 0.289201 -0.197379 0.809796 0.430623 -0.651075 -0.511625 1.23597 0.260883 0.0312462 0.00476938 3.19177 -0.0580817 0.570675 0.693192 0.13017 1.04259 0.237463 -0.452811 -0.628369
0 -0.095438 -0.171349 -0.527659 0.693469 0.322583 -0.62592 -0.777294 1.03767 0.0432106 0.401461 -0.102904 3.40222 -0.112212 0.386453 0.544349 -0.0329023 0.684149 0.210452 -0.872099 -0.364959
2 -0.34978 -0.0305547 -0.343789 0.587834 0.483754 -0.638069 -0.885083 1.0698 0.217105 0.352014 0.00282227 3.44519 -0.14484 0.409846 0.691927 0.015367 0.951248 0.353747 -0.764712 -0.451881
11 -0.44008 -0.241397 -0.4915 0.457821 0.415593 -0.898318 -0.813405 1.1794 -0.0886684 0.35745 -0.0478011 3.48551 -0.308338 0.218858 0.414234 -0.140439 1.19514 0.245418 -0.908821 -0.339268
4 -0.322335 0.0704565 -0.287063 0.335709 0.610962 -0.73453 -0.840139 1.00539 0.119211 0.486166 -0.0507298 3.16978 -0.215604 0.219177 0.665158 -0.0867471 0.863163 0.34154 -0.840047 -0.2325
15 -0.0714632 0.227143 -0.52251 0.835642 0.39468 -0.514443 -1.04685 1.35551 0.0855531 0.28535 0.0277706 3.13962 -0.28986 0.489352 0.752671 0.141581 0.958123 0.313143 -0.908696 -0.447683
7 -0.218643 0.229212 -0.289291 0.582139 0.563879 -0.650083 -1.26921 1.15677 0.220448 -0.08897 0.143383 3.63236 -0.10378 0.741309 0.618766 0.133705 0.802766 0.131518 -1.20518 -0.513085
10 -0.0196002 0.223063 -0.24138 0.600467 0.487957 -0.641575 -0.778795 1.07278 0.0831914 0.217063 -0.103469 3.05608 -0.0682126 0.504285 0.701988 -0.0730509 0.677323 0.0314168 -1.00134 -0.406235
9 0.0166451 0.296488 -0.353971 0.676243 0.573541 -0.631467 -1.12249 1.07138 0.166089 0.103508 0.0871546 3.17305 -0.125287 0.610302 0.73811 0.014633 0.966888 0.180492 -1.06063 -0.388759
6 -0.44812 -0.30139 -0.622337 0.442559 0.290549 -0.782971 -0.821193 1.20708 -0.204966 0.370683 -0.0637544 3.34134 -0.344303 0.267475 0.370521 -0.196109 0.999271 0.185535 -0.990978 -0.322086
8 0.0106301 0.0683669 -0.531544 0.763921 0.493037 -0.589011 -1.2325 1.23333 0.217608 0.0261407 0.187052 3.02896 -0.185988 0.760614 0.660557 0.164907 0.895459 0.281465 -0.766781 -0.380975
3 -0.0890189 0.00300199 -0.364702 0.801432 0.686386 -0.813904 -1.10063 0.662864 0.378125 0.471344 -0.00982113 3.65586 0.0122935 0.484399 0.623926 0.190772 1.02746 0.425631 -0.805453 -0.363375
16 -0.312623 -0.135296 -0.432975 0.650139 0.585201 -0.906146 -0.981113 0.932405 0.286879 0.2684 0.0657275 3.33458 -0.16175 0.452593 0.661957 0.0943645 0.882598 0.385403 -0.883906 -0.391364
5 -0.256534 0.0626513 -0.526933 0.558777 0.547834 -0.75222 -1.42023 1.33884 0.160069 0.203791 0.211533 3.79304 -0.311223 0.935878 0.503043 0.425032 1.40974 0.405628 -0.886666 -0.46654
1 -0.196731 0.0527875 -0.455217 0.485372 0.561513 -0.704119 -1.32212 1.18424 0.134756 0.144898 0.140394 3.65617 -0.24454 0.867521 0.593303 0.286704 1.00524 0.224062 -1.03166 -0.396969
14 -0.239198 0.0754163 -0.512501 0.510722 0.609979 -0.832335 -1.44922 1.28692 0.215521 0.16628 0.214969 3.7745 -0.314395 0.912347 0.542942 0.4289 1.25601 0.421855 -0.826078 -0.406005
17 -0.0810528 0.032305 -0.407834 0.765438 0.744738 -0.883536 -1.1706 0.751256 0.382729 0.530817 -0.0239328 3.74347 -0.0320259 0.430265 0.73777 0.081329 1.05931 0.496513 -0.710587 -0.244096
