40 20
19 0.175041 -0.829035 -0.097612 0.486704 0.0288415 0.157551 1.71021 -0.623299 0.12299 1.35558 0.839067 -0.61879 -0.179425 1.50278 0.288983 1.59287 -0.0853929 -1.45705 2.71571 -2.74235
8 0.0870128 -1.03427 -0.47625 0.464509 -0.102597 0.31515 1.60446 -0.0611874 0.33521 1.43029 0.505456 -0.695569 -0.182096 1.13685 0.320272 1.61624 0.0731212 -1.24193 2.86178 -2.56263
6 0.0406391 -0.890834 -0.197961 0.0809052 0.0283597 0.329831 1.54114 -0.388788 0.299197 1.47223 0.967729 -0.626794 -0.188578 1.10789 0.717382 1.54653 0.0128554 -1.29831 2.65751 -2.81089
13 0.139627 -1.11834 -0.096537 0.406942 -0.178677 0.0885741 2.08207 -0.338569 0.381504 1.51238 0.869644 -0.940302 -0.250065 1.72786 0.572002 1.62754 -0.136108 -1.33102 3.30674 -2.99346
37 0.0429955 -0.852681 -0.339441 0.558612 -0.113733 0.176337 2.08645 -0.378285 0.302399 1.4823 0.901808 -1.07673 -0.207108 1.70715 0.553523 1.60858 -0.201404 -1.36433 3.16153 -2.91798
3 0.206684 -1.06743 -0.295255 0.501309 -0.166559 0.102661 2.20636 -0.311491 0.264686 1.63778 0.897319 -0.964431 -0.388267 1.85619 0.596058 1.75823 -0.245517 -1.43201 3.43964 -3.03468
18 0.155871 -1.01952 -0.148958 0.514757 -0.0643958 0.157418 2.24167 -0.394046 0.364676 1.54893 0.944139 -0.950734 -0.245807 1.66079 0.627843 1.60162 -0.148871 -1.29934 3.18833 -3.0755
2 0.174541 -0.989263 -0.252212 0.465241 -0.0699359 0.141582 1.94527 -0.277949 0.268052 1.59924 0.897197 -0.954571 -0.232541 1.58502 0.599723 1.72526 -0.0567368 -1.26273 3.16946 -3.01113
30 -0.142411 -0.896111 -0.299508 0.514186 -0.2268 0.0490608 2.07054 -0.364474 0.218508 1.59868 0.990924 -0.952443 -0.34665 1.76549 0.590713 1.72894 -0.15624 -1.37409 3.33328 -3.05864
21 -0.0250389 -0.996078 -0.158838 0.481498 -0.127498 0.0230066 2.15406 -0.395118 0.331588 1.57483 0.834044 -0.947829 -0.418367 1.63946 0.516722 1.71277 -0.254725 -1.37299 3.41787 -3.04245
28 0.260786 -0.946483 -0.158952 0.498288 -0.139608 0.0500636 2.24115 -0.435637 0.514703 1.54968 0.959688 -0.966567 -0.332527 1.77851 0.647194 1.6525 -0.239429 -1.35983 3.32769 -3.11018
38 0.3033 -0.955076 -0.254123 0.526044 -0.13987 0.0559562 2.07309 -0.28743 0.294152 1.61596 0.923825 -0.983817 -0.210917 1.67683 0.650409 1.55896 -0.0543326 -1.40169 3.21681 -3.13588
27 0.2553 -1.11741 -0.0372052 0.482747 -0.0105598 0.309266 2.11447 -0.347792 0.46411 1.38385 0.907631 -0.885045 -0.212808 1.68331 0.534315 1.77407 -0.286204 -1.18254 3.26639 -2.99747
36 0.349574 -0.967778 0.0727525 0.374385 0.0363199 0.109218 1.69881 -0.368083 0.348722 1.53439 0.873932 -0.90039 -0.346887 1.62945 0.666201 1.35383 -0.0689611 -1.19013 2.8055 -2.71898
17 0.0118459 -1.03624 -0.255875 0.541095 -0.0315301 0.148481 2.29702 -0.554931 0.551832 1.58524 1.02422 -0.937028 -0.455239 1.85825 0.594759 1.50138 -0.238049 -1.42739 3.28329 -3.09255
11 0.0641014 -1.37845 -0.30214 0.775697 -0.0892331 0.214283 2.64756 -0.538596 0.370315 1.76613 1.21381 -1.21571 -0.377115 2.02449 0.582213 1.77477 -0.0387051 -1.83356 3.95558 -3.71727
12 0.136062 -1.43991 -0.253371 0.718285 -0.138832 0.116426 2.60033 -0.674365 0.302698 1.72334 1.2164 -1.19854 -0.408295 2.06872 0.631263 1.68121 -0.0567416 -1.92197 3.89874 -3.61335
4 0.0841272 -1.40835 -0.262719 0.656204 -0.00730166 0.261996 2.26194 -0.678045 0.229082 1.49267 1.18946 -1.13022 -0.360559 1.8227 0.556795 1.65755 -0.011294 -1.86633 3.44309 -3.19915
26 0.168882 -1.50807 -0.2655 0.783382 -0.0547948 0.273152 2.73948 -0.658986 0.246367 1.63296 1.22257 -1.22079 -0.345753 1.96741 0.592331 1.77981 -0.0318506 -1.97442 3.89937 -3.63815
1 0.170733 -1.41316 -0.326057 0.685068 -0.044345 0.28768 2.31747 -0.545875 0.245656 1.45788 1.04004 -1.08474 -0.347603 1.77495 0.490241 1.63797 -0.00652754 -1.84889 3.5859 -3.20878
9 0.0794333 -1.45358 -0.196444 0.74015 -0.105185 0.129932 2.62481 -0.630816 0.341966 1.6308 1.21588 -1.14983 -0.368527 1.97961 0.611098 1.83809 -0.087642 -1.82216 3.79987 -3.59148
35 -0.00373798 -1.51727 -0.285197 0.731494 -0.0193407 0.241624 2.58464 -0.602063 0.427757 1.70747 1.27742 -1.23899 -0.430163 2.01707 0.653602 1.88407 -0.0677383 -1.79703 3.94879 -3.79047
15 0.0916696 -1.45964 -0.222525 0.687191 -0.0425582 0.249579 2.48269 -0.569035 0.206192 1.40165 1.13832 -1.06659 -0.426405 1.81095 0.541003 1.70432 -0.0272095 -1.76979 3.55426 -3.34865
31 -0.0425055 -1.0596 -0.412301 0.420898 -0.0806146 0.112426 1.75698 -0.591373 0.332692 1.53714 1.00269 -0.83548 -0.4203 1.70687 0.490663 1.59318 0.0228407 -1.74778 3.13462 -3.01378
0 0.162297 -0.678992 -0.0875203 0.454752 -0.0632676 0.338114 2.05817 -0.271908 0.143236 1.28529 0.809317 -0.866908 -0.215945 1.39238 0.484111 1.59775 0.202405 -1.70251 2.95252 -2.85421
16 0.163037 -1.0046 0.0930675 0.455388 -0.0220004 0.25231 1.82858 -0.585246 0.00388732 1.46434 1.08795 -0.763216 -0.0689578 1.52618 0.46005 1.64104 0.111239 -1.47544 2.95329 -2.96214
5 0.0880414 -0.749776 -0.130153 0.512818 -0.0643886 0.0549418 1.75411 -0.281266 0.424448 1.28291 0.720671 -0.771722 -0.430283 1.44899 0.328107 1.64429 0.207888 -1.53502 2.85117 -2.76707
14 0.127069 -0.698865 -0.135681 0.492628 -0.121554 0.0691328 1.73356 -0.469789 0.239529 1.41378 0.828046 -0.746105 -0.205892 1.46179 0.305107 1.50508 0.137812 -1.6814 2.85192 -2.83613
20 0.112179 -0.803241 -0.306124 0.673531 -0.0129927 0.19695 1.95547 -0.273062 0.293546 1.1581 0.504051 -0.756042 -0.393497 1.43676 0.118657 1.82328 0.164056 -1.36866 2.84378 -2.57845
34 -0.10697 -0.844907 -0.139776 0.478077 -0.0628225 0.0868304 1.68554 -0.557751 0.249629 1.45601 0.893437 -0.654505 -0.385623 1.5853 0.357723 1.76706 0.0542278 -1.54925 2.97883 -2.85809
22 -0.115685 -0.970227 -0.119315 0.436894 -0.0855763 -0.0503799 1.79154 -0.52729 0.373851 1.18509 0.791516 -0.578539 -0.509238 1.34816 0.340737 1.53531 0.092627 -1.45574 2.82891 -2.98095
25 -0.119044 -0.688769 -0.00606924 0.465203 0.0298075 0.322898 2.15644 -0.607937 0.151691 1.28196 0.873608 -0.881757 -0.306295 1.36479 0.51723 1.60245 -0.0107861 -1.70526 2.9483 -2.78013
29 0.0664532 -1.00427 0.0469656 0.312847 0.188335 0.320022 1.66749 -0.439686 0.383876 1.44356 0.846132 -0.831609 -0.396489 1.36968 0.59899 1.50061 -0.073501 -1.46857 2.99243 -2.74572
32 -0.267512 -0.834169 -0.406708 0.416085 -0.0339696 0.337111 1.56856 -0.385347 0.211925 1.39085 0.800506 -0.729486 -0.32632 1.35303 0.432163 1.58833 -0.00850947 -1.61839 2.9834 -2.60729
33 -0.071998 -0.956362 -0.427654 0.347559 0.0752265 0.408308 1.59451 -0.555505 0.187539 1.50027 0.966529 -0.715503 -0.244531 1.46446 0.423911 1.59962 -0.0527398 -1.32246 2.72652 -2.8064
23 -0.0248975 -0.915613 -0.140184 0.587785 0.0340169 0.250776 1.97643 -0.207279 0.361547 1.21647 0.600265 -0.762787 -0.411662 1.38288 0.278005 1.90274 0.231182 -1.33156 2.911 -2.72081
24 -0.0688667 -0.756423 0.0437722 0.693559 -0.0458117 0.0854455 1.75038 -0.390319 0.368966 1.43201 0.730831 -0.847361 -0.46188 1.5974 0.230172 1.56962 0.0503127 -1.62288 3.1345 -2.42641
39 0.203569 -0.918065 -0.258817 0.237214 0.0135826 0.293428 1.8521 -0.465854 0.309202 1.31246 0.729885 -0.752271 -0.382613 1.51225 0.548552 1.36566 0.152876 -1.54582 2.69563 -2.77179
7 -0.113411 -1.08116 0.0160806 0.453082 0.0625718 0.0927037 1.79139 -0.471277 0.413232 1.2811 0.809147 -0.592374 -0.474352 1.27826 0.420651 1.50942 0.0489836 -1.40018 2.83644 -2.96417
10 0.0451799 -1.28367 -0.198115 0.710546 0.0189458 0.284311 2.52461 -0.539344 0.437409 1.64937 1.12162 -1.08918 -0.443288 1.86768 0.562213 1.72659 -0.0685084 -1.56684 3.60213 -3.42285
